solver_type L2R_L2LOSS_SVC
nr_class 2
label 1 -1
nr_feature 2304
bias 1
w
1.968489213810597 
0.3766530190231386 
-0.5327114751328573 
-0.3409626210227222 
0.3477514694238996 
-0.6910574573596131 
-0.4519667952729981 
0.3866962187142163 
0.879662817779063 
0.9601990331937422 
1.317054875255401 
2.525935312446069 
0.9013622857453256 
-0.1952039233555666 
1.446423674027457 
2.969216134759479 
-2.130373159634384 
-0.5713405781501809 
-0.2716111197316585 
-0.007724915471652639 
0.1526103783368973 
-0.1170949003850383 
-0.8843445049906104 
-0.9704161569770998 
0.04544747422069989 
0.3996166466055791 
-0.08213467352318381 
0.1877772255937177 
-0.08075971395833886 
-0.2636050167496631 
0.3961870608483126 
-0.3684721243217256 
-0.4215919607889552 
-0.2700559226076636 
0.1526506255835531 
-0.4375087941348249 
-0.02698655802700022 
-0.08417237733811213 
-0.2827818087402579 
0.220983748600086 
1.048859819370673 
0.5389813725963798 
0.4655240727792867 
2.265184683310346 
-0.02809971170705115 
-0.03145539278919822 
0.02703846271628946 
1.061061030655302 
-0.3479355935140178 
-0.2499057085344369 
-0.09623113034829496 
-0.3129821659797084 
-0.009192545214092983 
-0.1557807728673215 
-0.1155661792025549 
-0.473368592434905 
0.02814997981527723 
0.103455357157373 
0.01410163686684863 
0.1290101221285089 
-0.2276250311114512 
-0.1399929286974956 
0.02047414988602855 
-0.1790623064730625 
-0.9769878241728071 
-0.09197385851386219 
-0.4475478549835191 
-0.08312021590648573 
-0.2734373440316051 
0.01599273605197918 
-0.2475519231997404 
0.04413754347384565 
-0.4130184033577489 
-0.236242755250162 
-0.08107373053035341 
-0.1522462491877479 
-0.0966442419179345 
-0.04383417821919255 
-0.1091292364166388 
0.2479841742318819 
0.01308708885953827 
-0.1138694684765196 
-0.1557014287414867 
-0.0462105812236891 
0.07917673755572631 
-0.1042668145016476 
-0.1320943426433014 
0.1054837387360826 
-0.07592728369947657 
-0.1110845041170457 
-0.03870617586734894 
-0.1262817364947437 
-0.1574757872193969 
-0.01993766351500612 
-0.03743105661323028 
-0.2070457992711087 
-0.1809219368576316 
-0.3186443699934581 
-0.1591858676427107 
-0.2602111031632216 
-0.4305520377572276 
-0.08644097296914069 
-0.2615158309590897 
-0.1172811885908493 
0.5294035617265327 
0.4183045017342326 
0.01277028025000364 
0.1360707191622983 
-0.2299748150278639 
0.05421357143238356 
-0.07232851089862785 
0.9521523289219138 
0.2252743710967937 
-0.05933650162690034 
-0.109526808972822 
-0.1376912684752114 
-0.2313680275133299 
-0.04182830943155334 
-0.2213947698225507 
-0.6091897768049845 
0.3412501010017018 
-0.2723715502177958 
-0.07356123813216317 
-0.203065969435835 
-0.1307969471791441 
0.04851636776805843 
-0.2289475147729345 
0.07871723812245093 
-2.034929941090817 
-0.1005109345388213 
-0.2291655184580698 
-0.07389776383164237 
-0.2971461549325646 
-0.04607900040870618 
-0.7091055432290654 
-0.3166380727460605 
-0.3355327726082243 
-0.1937514237634092 
-0.07966928257627456 
0.07320024174385956 
-0.1071511628540736 
-0.1765817527579127 
-0.003069128470900063 
-0.06956178444161856 
-0.5369072931372498 
-0.134501050866399 
-0.1270680741117454 
0.008838508757565143 
-0.1840428871114958 
-0.03381912445373834 
-1.483254421192171 
0.5685817144996954 
0.4727219886136176 
-0.241975304523618 
-0.04688994057916644 
-0.002421215401392666 
0.07009842162108147 
0.08443026669380363 
-0.0259144160213859 
0.5756574966111641 
-0.7463849375043361 
-0.1012680829527439 
-0.1133416313349394 
-0.1126844049260513 
-0.1672071681950949 
-0.0238500985013462 
-0.1723489621728018 
-0.2921586071800283 
-0.1281282351112443 
-0.2754234160730612 
0.01238929174016833 
-0.1480361597483293 
-0.01461325768550539 
-0.1013487703098887 
-0.1537066188103737 
-0.1795115063100042 
-0.160371071217531 
-0.2917673717896155 
-0.02360647757641494 
-0.1013257991768754 
-0.2234614235676191 
-0.1511123486100501 
-0.3016465536364905 
-0.431194737130726 
-0.06104358190487547 
-0.3127706510327999 
-0.1234273508011516 
-0.01801129686678649 
-0.07353866244106674 
-0.8595271995716876 
-0.04402148730741057 
-0.3892737038665082 
-1.036441239950966 
-0.3461188052059916 
-0.1306329268078132 
-0.5755129202953537 
-0.1469820660245694 
-0.1481142247764735 
-0.4497306977172911 
0.2763306603654095 
-0.7974781544424938 
-0.2629946831910293 
-0.1204850812864763 
-0.02424701303528153 
-0.2002347732318157 
-0.1114230066353625 
-0.2006336332172221 
-0.6665954298229839 
0.3307011914234823 
-0.1846197062225889 
-0.1498185177363446 
-0.08727369070079397 
-0.1665295130805156 
0.06750482630573788 
-0.8138852428829015 
1.561754180473095 
0.1329991665581265 
-0.033674779311975 
0.03549450499901479 
0.05441074761334232 
-0.04605293979600417 
0.2577201276964245 
-0.2213706581701062 
0.5210914168673652 
-0.05139286237997137 
0.2025552104710809 
-0.1007737476463059 
0.1446720226734259 
-0.542157228722946 
-0.09294168234336118 
-0.07557785155680495 
-1.234948540089839 
-0.04627628515407065 
1.767378665714312 
0.4274541499104446 
1.329979827094083 
0.204297913527783 
-0.1245239832927466 
-0.3998500554276712 
-1.3218261141612 
1.194242756818313 
0.3049208314093852 
0.1630730721515715 
0.3595218709286563 
2.2832549300579 
0.7811753765927562 
1.248953022041369 
-1.417908628501364 
1.474522988675817 
-0.4003542252061794 
-0.07695132212872698 
0.851080518285679 
0.6379201068178133 
0.7505360825077825 
-0.4088887632071752 
1.703452906784175 
-1.060663286220923 
0.2958864510148693 
-0.7997093539411198 
-0.7334348170544878 
0.7515497887290623 
-0.5826828868509907 
-0.1512990022609341 
0.9704141842460653 
1.244337112238662 
0.4210203367024347 
0.7545397105489817 
0.3258643826638454 
0.4420769157098785 
-0.02812000173334399 
0.9641333484975236 
0.4281380065284249 
0.9234526015089549 
0.1410487386093458 
0.3515224249025636 
0.776663815288438 
0.2247085504359708 
-0.07673180535756996 
0.6754785662391273 
0.6738187154981551 
0.9460883223200423 
0.28493309056863 
-0.02964703576375592 
0.3719839704822316 
0.1741544261023262 
-0.07267898828705868 
0.4083544425097763 
0.4093059018968671 
-1.236552584451204 
-0.2590394881639776 
0.1461618373698119 
-0.4706396123977417 
-0.2755237598769599 
-0.2309915766168564 
-0.4073027137089612 
0.3460285439203007 
0.1824098097236952 
-1.029236469150205 
0.07961892299321677 
-0.07705287539298761 
-0.2179018538127547 
-0.04392331625009584 
-0.06082047082902249 
0.08010419947120218 
0.01015127021718289 
-0.2823181734327027 
-0.131989433411754 
-0.2818265581750202 
-0.1479298956516889 
-0.08851127567564196 
0.05040774671210838 
-0.4071323078580768 
0.1238219033738651 
-0.1173475509574099 
-0.06207487302900569 
0.1302900387693287 
-0.2987268656498276 
-0.2722735980383022 
-0.06739680946388205 
0.2447776802517149 
-1.576140398180517 
-0.06003362480493284 
-0.1801076705145212 
-0.2333074668125458 
-0.2424894935083151 
-0.03070247591201916 
-0.4153403912380415 
0.3014692495619499 
-0.1462308577305358 
-0.1776710139448261 
-0.1257869697789728 
-0.1971629059127219 
-0.08017028585110327 
-0.08276266687364722 
-0.1080541283180555 
0.2353749783765796 
-0.4094339769908036 
-0.09295427807354641 
-0.07510518070666743 
-0.02285940011247152 
-0.1380269896929557 
-0.0007234112108757801 
-0.2026470612577773 
0.2704730840744702 
-0.07600407176571214 
-0.04694019834600196 
-0.04319380355293484 
-0.09847178912734604 
-0.08732783350274062 
0.0142805567768041 
0.006721030501845971 
-0.2984750097170574 
-0.9043606734750455 
-0.4256064976644876 
-0.1808496873995981 
-0.4653629113283871 
-0.5967445998894899 
-0.05100327583036617 
-0.4137507681008362 
-0.04388163571622401 
-0.9854982789916026 
-1.193459589397218 
-0.04906349673037546 
-0.4215719070995959 
-0.2407430813477273 
0.1661967676123514 
-0.1457845642257102 
0.7720467252139555 
0.2508436354673397 
-0.1322178912846488 
-0.1119881716557167 
-0.158208667499898 
-0.3930229841684606 
-0.08699785668541335 
-0.2363030321533108 
-0.4322508040229933 
0.5865812747893916 
0.01716538971103774 
-0.1707083979317016 
-0.2883135636807938 
-0.2629575959600316 
-0.03626917618146815 
-0.2056010970791976 
0.5984022614620236 
-0.9087654450131477 
-0.07999142131953053 
-0.1140611785126304 
-0.3137600602408891 
-0.1405473642288767 
-0.07391175931893906 
-0.6453784747122082 
-0.4327301185815069 
-0.02208433196004244 
-0.05211121725126245 
-0.01330651912338848 
0.1539392864881137 
-0.08141730426139172 
-0.2376798338948399 
0.07538591697739785 
-0.157235146899719 
0.6540476030173112 
-0.00244803943328268 
0.1091961965425941 
-0.01679795132902767 
-0.8464791089080798 
-0.1122900372951525 
-0.7405157724397341 
1.225635843613578 
0.5631476651328699 
-0.2756516994477368 
-0.05076153435353296 
-0.1610502131829714 
-0.03615327975238496 
-0.1525252432821294 
5.003053171268902e-005 
0.5914155901795954 
-0.8424536756845171 
-0.1027839459076916 
-0.08478050353861563 
-0.1658899370057723 
-0.1459879447485511 
-0.028171320608931 
-0.1722031147006835 
-0.1844522429431642 
-0.1630158986543816 
-0.3110994389259436 
-0.09177832764455868 
-0.5027073529511648 
-0.02899551757237516 
-0.07834183865593733 
-0.1669235293070783 
0.03988083303596612 
0.06826548396812898 
-0.160543568299613 
-0.01206240744167137 
-0.08239161947096764 
-0.4463795901480325 
-0.1111369053404901 
-0.03997246680907874 
-0.302694156234608 
0.2817245348015764 
-0.3457248793777282 
-0.005881717638539277 
-0.1419155104387642 
-0.352481116453173 
-0.4232833252798068 
-0.1520357661577545 
0.4094028508918757 
-1.41212982931592 
-0.326844019259859 
-0.2511117434746593 
-0.4326493752359005 
-0.3628253762441873 
-0.1403322160823816 
-0.5618578607169912 
-0.06127452706482514 
-0.5012445515426978 
-0.3191346709641427 
-0.1645090999369243 
-0.1173596088542976 
-0.1967887010813192 
-0.0169169148081532 
-0.1670153040923641 
-0.4410600580661963 
0.06556629498186557 
-0.4811483083385088 
0.02872014580706337 
0.09134669043716402 
-1.522251385204575 
-0.112975700739455 
-0.08881988648252856 
1.26379504517349 
0.1798847113321415 
-0.26110404551579 
0.08758879044458738 
-0.04171944794677233 
-0.20801336863879 
0.0837863707941508 
0.08733676244997143 
-0.04812136110342555 
1.0458737161752 
-0.08521561582532364 
0.2200858441372337 
0.4348274735772607 
-0.5265554387990408 
-0.174772078988444 
0.2051829904776228 
-0.09257768953476116 
2.03678929349086 
1.305714065766625 
0.4728080261865868 
1.230026963605313 
0.3849104703451524 
0.0362577141916314 
0.104830855651572 
1.497448258582052 
1.389899917429531 
0.3164865776397927 
0.3648257460368117 
0.1587083011107313 
1.673206137911457 
0.5154275046414645 
0.9884632684584233 
0.2900220032622826 
1.904055764735273 
-0.5396835160408482 
0.03439414626600585 
0.2040213374665495 
0.0924646935583596 
-0.08995792846089362 
-0.1182755598017305 
2.126607451818577 
1.66014919672349 
-0.09422472354011499 
-0.7219420780307433 
-0.1995948247274181 
0.3977316586905884 
-0.4872009689140068 
0.3863221560135248 
1.435925568662928 
-1.977609255183037 
0.449593503637101 
-0.02746037235636611 
0.2407547158177827 
-0.4279986948192296 
-0.08434190653612543 
0.2799474331887881 
-0.9674393690754752 
0.5344277713786032 
0.3572831599499102 
0.801159174641315 
1.482156839299667 
1.432999026909007 
-0.2355457789331882 
3.59956461269633 
2.744138501971062 
0.3365660004667155 
0.1886575183424873 
-0.05271918309578305 
0.3180707588666663 
0.06213628842438543 
-0.03017032057746213 
0.2469897452548104 
-0.1911141970477504 
-1.721990242859898 
-0.3812367667972229 
-0.04512533203881698 
-0.4947025577463071 
-0.3587921428316 
-0.2169567092382157 
-0.367475629787982 
-0.04074795618634017 
-0.4539080324017324 
-1.201909705630722 
-0.04467736448620524 
-1.715577132093577 
-0.2481057641861507 
-0.05986796653760274 
-0.2109303146829728 
0.7157066899463402 
-0.5914194612269601 
-0.1461885334766195 
-0.2192640774365464 
-0.2657738570354608 
-0.1248161023808332 
-0.149144789466079 
0.0673195613966054 
-0.286972715285251 
6.399627745223846e-005 
-0.409805228122839 
-0.157317622372701 
0.1292022482938204 
-0.3477205092456475 
-0.1982753393717861 
-0.01097209489472573 
0.386523248276805 
-0.638136331260064 
0.03155743672498439 
-0.05406625901349473 
-0.3085896360367049 
0.07580513012734551 
-0.02190174517749111 
-0.1176273685786179 
0.3364953116330522 
-0.1169897349291799 
-0.08369251465328217 
-0.1026551440433635 
-0.2224148441787688 
-0.06791724304282257 
-0.1525342054624356 
-0.1752471507929626 
0.2259233531926806 
-0.6731876017844815 
-0.1303069781684128 
-0.09981596678940131 
-0.02497548146292166 
-0.1111257216339882 
-0.05538662982592542 
-0.01074030510575483 
0.2384216413567466 
-0.2099626213226431 
-0.01702768569913979 
-0.07558630734417128 
-0.1217063179238751 
-0.1219245040509599 
0.003460811045899032 
0.002207801520497819 
-0.2325362652163958 
-1.679860511117483 
-0.4192742953476399 
-0.2184588450222358 
-0.5798279861491067 
-0.5790918407333672 
-0.101969202132523 
-0.4951216219415835 
-0.1190349274414846 
-0.7736182951237042 
-0.235648135564134 
-0.09069948479544771 
-0.9349672244854226 
-0.0975624615372937 
0.1993241005489977 
-0.3330167179641586 
1.282713171522354 
-0.3862655338732324 
-0.1439826633278965 
-0.2129230931606422 
-0.2954796462050943 
-0.4589550309377357 
-0.207684074466146 
-0.1161472166302516 
-0.5672797875082898 
0.5016276440940295 
0.1953791318533935 
-0.1155247617947137 
-0.3372473141154324 
-0.1661464453497093 
0.03238425938906422 
-0.1538831906001563 
0.9920680335852948 
0.01513808340391325 
-0.06338722668412665 
-0.02420817078166378 
-0.01622684836767122 
-0.1941234662242511 
-0.1151157265639909 
-0.6632761597684447 
-0.2869662370466324 
-0.09302876273897653 
-0.06799001214697513 
-0.09195820691942466 
0.3198653676795834 
-0.1944985188170968 
-0.181317590656313 
-0.1097232701666095 
-0.3838232341953258 
1.741471724219357 
0.04760273807180313 
0.5046745292622112 
0.2103329016399901 
0.9356022146451802 
-0.1490919432070144 
1.831309018022769 
1.854206778600229 
0.4913777338492198 
-0.12197079655456 
-0.01998718524160456 
-0.067337758750645 
-0.215685627395974 
-0.1503414346752764 
-0.02673264210688798 
0.03673501267863551 
-0.8022880397297258 
-0.2194249014528229 
-0.01028658542104113 
-0.08253232125966535 
-0.112179290160578 
-0.0355669832585151 
-0.1278046443375842 
-0.1685104573576004 
-0.4029990767688045 
-0.2127476692271281 
-0.1143439355163632 
-0.6190673626313704 
-0.124918060665605 
-0.01814768555381716 
-0.1354752231827273 
-0.02237779748258111 
-0.01878296826839023 
-0.1445744360322667 
0.05259983537790042 
-0.1123005042625589 
-0.436055268659879 
-0.05417353273825358 
0.1707326516173364 
-0.1001975329093502 
0.3023029931633144 
-0.09936988135279454 
-0.06141512779999023 
-0.3440649349942487 
-0.2020103875901793 
-0.4833059292121187 
-0.1589772923098429 
0.4533573612370427 
-0.5399985226671858 
-0.08469773997744037 
-0.0692027212424067 
-0.318636619454389 
-0.185110430547869 
-0.1993184767024586 
-0.4504523712341579 
-0.1695999258922703 
-0.4408414244587817 
-0.1058014192294388 
-0.1003559172962846 
-0.2872871190163757 
-0.2663344825221294 
-0.03797831997150067 
-0.2640387256138247 
-0.4552994470735999 
0.5812493011589797 
-0.2057962454601525 
0.2521333893407706 
0.05646707837981869 
-0.2018106154291006 
-0.2245619573150098 
-0.2490938325586239 
1.427361867475061 
0.1494904012700836 
-0.1968637791320176 
0.0139786257286036 
-0.1907142436064835 
-0.2721002489798987 
0.1234588439049708 
0.1388180590208281 
-0.3264805634237057 
-0.3857466479700573 
-0.3089243823103258 
0.1986611944703654 
0.1356797511496683 
-0.2325449452103689 
-0.1067715536451546 
0.3670715077601882 
-1.448320647149835 
0.1347017822470896 
2.341879606274895 
0.1493019799265846 
0.6740368164140728 
0.677482755906288 
0.5033415730079751 
0.159754312928904 
-0.1774367090489219 
-0.2108113081589816 
-0.2661935726106574 
0.3421443823389753 
-0.3879362355712389 
0.8334732738437708 
0.1732207346786975 
1.141353794925165 
-0.5837030243314247 
1.181333029859062 
0.03161033070887175 
-0.03975644208242805 
-0.6509232148735852 
0.3550957702611085 
1.160127400499329 
0.7027773229348584 
1.297293748836202 
-1.202153093186009 
0.1535738653483963 
0.02067691502324704 
-0.1417988065068343 
-0.003492985390482102 
-0.5649802898033931 
-0.2527243539518692 
-1.300160561824074 
0.6213498886016229 
0.6037568459812599 
0.5456302544031407 
1.959647130937937 
0.2503152812126089 
-0.1403646026087501 
0.7197338527640242 
-0.5298551829341178 
-1.642478857024094 
-0.3975922898112475 
-0.2017802409747886 
-0.2301882504867869 
-0.08093282746699435 
-0.3886933916663037 
0.03885319718923805 
-1.778283302489351 
0.2963215912133345 
0.03445842897767801 
-0.2047089306015632 
0.1697779776401276 
-0.2433250555755711 
-0.4662242233528132 
0.3132673684590158 
-1.047078955773111 
-0.6828036242525352 
-0.1856678956160429 
0.1098511663739824 
-0.4044011432639101 
0.05348642726474941 
-0.1167721386341112 
-0.1684852028020309 
-0.03735637237520167 
0.8959404823739882 
-0.3039539534093102 
0.3132119454445869 
-0.3933473676804348 
-0.01018431160758965 
-0.09689216734327281 
0.2904733410427314 
-0.2969739400509909 
-0.01776847767740396 
-0.1249815726474453 
-0.09513049007050407 
-0.1470360562997091 
-0.1443419318870572 
-0.119268461172748 
0.4523906639470028 
0.002715458857013425 
-0.2308574268558068 
0.009647118990126319 
-0.07453586173735494 
0.009285611389165869 
-0.1697974176922975 
-0.1878010707039044 
0.3179510283058526 
-0.1498822614892893 
-0.2647762451122542 
-0.1204364083352203 
-0.4669978810177924 
-0.1220452596086862 
-0.1885048673308845 
-0.02586944045415746 
-0.04846121071256226 
0.107850600410342 
0.1762820521734989 
-0.002965966849622401 
-0.06491834251986356 
-0.1317403272630187 
-0.1126562877503202 
-0.01337568317818819 
-0.08967419319803312 
0.1468646225440734 
0.2037604143473677 
-0.1230624751233388 
-0.1061849897210682 
-0.07119806037171439 
0.3039385059023247 
-0.07105846626607354 
-0.07062116538903632 
0.2992413377551899 
-0.08454923234883663 
-0.1069992599726662 
-0.03485633812837322 
-0.07319633393475064 
-0.1595928371014672 
0.0005513407102351832 
0.02142881077963278 
-0.04495679746074986 
-0.01282171374008401 
-0.1455629917578386 
-0.3455061436017312 
-0.3614518806481304 
-0.2916861652183149 
-0.0796341974109297 
-0.4321168366241577 
0.05532017318691903 
1.93391739058934 
0.3768097844686326 
-0.0399408710426561 
-0.9819439239754894 
0.1011129889110903 
0.4514652594073569 
0.1093545360750477 
0.2907894153340121 
0.3345700827610505 
-0.06077558586498862 
-0.03296994803899977 
-0.08972343931737288 
-0.2103125889539195 
-0.02649402388139937 
-0.1081431276360468 
-0.321046132065559 
0.3231262963250993 
-0.1389131436522257 
-0.01676427690462093 
-0.1476550371342607 
0.1068293824964608 
0.1884613105842848 
0.03506531523926768 
0.3438218466900185 
-1.00150522470523 
-0.1193145889968675 
-0.2661748489641426 
-0.08449109887689753 
-0.2599693736110646 
-0.02714556271018323 
-0.5930739199717819 
-0.2273963096719459 
-0.003372579784728795 
-0.04611446351640909 
-0.06069788642475723 
0.420556497462885 
-0.002350688928207747 
-0.1954761119341505 
-0.09136639829913634 
0.008736900320405673 
-0.994839896140285 
-0.08512014887734222 
-0.09706185876944323 
-0.08577841461257528 
-0.2521018908346669 
-0.06914618788197546 
0.8389283206006772 
1.174099450266742 
0.2433609998919231 
-0.3170776161142478 
-0.01750557410542897 
0.151793250789313 
0.03031926620145485 
-0.1892331077551515 
-0.2718042849761536 
0.3632999406077686 
-0.7170123939530764 
-0.05837306745242246 
-0.097644575732154 
-0.07333716394640316 
-0.1201552994579008 
-0.03757507723611578 
-0.1526771873364948 
-0.2271770023968533 
-0.05058700065130064 
0.02856084311505425 
0.00487668895174696 
0.01729206196379308 
-0.07435840025149966 
-0.1128374159110816 
-0.03484964188989636 
-0.2356579381606689 
-0.2632015222853528 
-0.1649488047520743 
0.01969291348918301 
-0.0698544377425471 
0.1021979853807332 
-0.091704845638788 
0.4411937206076491 
0.1547647210863773 
-0.1722166064532457 
-0.1448938169370336 
-0.1033760245329657 
-0.00993844470264529 
0.02635264319647068 
-0.9988319873939762 
0.3290557247905061 
0.7944407375032762 
-0.2991363678711433 
-0.2839496509264992 
-0.3079671252588013 
-0.4927188564482211 
-0.2083585688264633 
-0.08547471162914326 
-0.5717809187338871 
0.366264629246703 
0.1329743875014198 
-0.1673908290989077 
-0.04894374712297202 
-0.2545598174116811 
-0.1010740270201931 
-0.01132692608953662 
-0.1630150519322461 
-0.5005858681013083 
0.6559855284478178 
-0.07200290199614159 
-0.1641439768257803 
-0.2952845877591844 
1.770533459698666 
0.5689301715901776 
-0.09768730845883866 
2.261668661470558 
0.04946713383097442 
0.1569357207724174 
0.09749778529976205 
0.1081422954386532 
0.05853068965971014 
0.5394779350537167 
0.04028673584311325 
1.292556875087784 
-2.489908322418375 
0.04141622469687988 
-0.5197177131875417 
-0.02797234955283046 
-0.2935388699885905 
-0.1333056601052329 
-0.1156199519300799 
-0.7015365500387167 
-1.479143441882585 
0.558066965418579 
0.2610296592763327 
1.136950097072125 
0.5846383557409751 
0.0436021959693967 
0.2055353567358 
-1.828078529938331 
-0.6555657095150546 
0.4417369619691787 
-0.0478486201332293 
0.2237904023217867 
1.691129667229895 
0.7614668549312522 
0.8590658863030121 
-0.3597008304168465 
1.204000513820821 
-0.3034192021603557 
-0.1094280149814018 
0.7015272487143449 
1.943124437042888 
0.5734710545416734 
1.03808298830777 
1.972319923939597 
-3.717228818742089 
-0.1730110109944767 
-0.08491010307319048 
-0.6930006790030158 
-0.1705010166627271 
-0.4954605280545622 
-0.8218165974545477 
-0.8492087052184305 
1.5529309902505 
-0.2428506010124854 
0.2484896877638834 
0.08579212923302085 
-0.1347875620454345 
-0.03481163226162616 
0.3254780257529236 
-1.120714316185258 
1.410128578761439 
-0.1069470814950281 
0.2394623692921959 
0.2500256870981234 
-0.4744191108270764 
-0.2293129843937294 
-0.2515495383815555 
-0.4735273031594089 
1.439488868661848 
0.118528858113203 
-0.2116899550514136 
0.1986779968569061 
0.08526093831342861 
-0.2650931249720256 
0.3380505942205452 
-0.4293950734561068 
-1.206542993138158 
-0.225759815654484 
0.06221818640714724 
-0.5108577729410803 
-0.1553698629618655 
-0.1426384153253559 
-0.3584313525832253 
0.1393899978908026 
0.02317424882839893 
-1.38142335444108 
0.03515558677611735 
-0.7188533663016505 
-0.173427996106551 
-0.159226803246098 
0.05454029134592473 
-0.7112979445836344 
0.7843685525958559 
-0.191608104030975 
-0.163230152143499 
-0.1687781552585781 
-0.1675454322557483 
-0.1116969325243388 
0.6791519192327687 
0.04536062951718899 
0.04448577840917761 
-0.1455768075965868 
-0.1300388212292463 
-0.005865239433577186 
-0.2313601887466326 
-0.3609968313337912 
0.1586286460732469 
0.1282778833455624 
-0.9984101748096985 
-0.04740310083382027 
-0.276167881418256 
-0.2726995073961051 
-0.2555392572210979 
-0.05879902933441869 
-0.2244732710592295 
0.1415286128161567 
0.2192179483699623 
0.1069800616621153 
-0.04189801368955716 
-0.04935986072356548 
-0.02681920317954024 
-0.09400917786560037 
-0.07690124218684138 
0.3510967602246673 
-0.05642385584267069 
-0.1133584335875331 
-0.01790809509720965 
-0.0499399114960235 
0.2253338531905892 
-0.03284197114635173 
-0.1385876501542755 
0.4370998310583641 
-0.06132371938041544 
-0.09454000182692586 
-0.03508410318347802 
-0.04749245419540694 
-0.09718680339298821 
0.01968767382483523 
0.02214085430298 
-0.09618094557394215 
-0.6382197250034024 
-0.1684992553860485 
-0.4382925710207354 
-0.4625041754165831 
-0.5467127421273688 
-0.01289129252695167 
-0.6309763693473623 
-0.05701097675186781 
0.85596884536555 
-0.3732341869178791 
-0.03706800919994115 
-0.408684770596631 
-0.03166563375020264 
0.5588104783853894 
-0.05278384093030401 
0.7932916389874405 
0.6972701484892324 
-0.02967143492889987 
-0.06052495507699744 
-0.162204903348834 
-0.3521818883376717 
-0.03626133117167062 
-0.2167042874727894 
-0.3674715936276692 
0.4253433596944864 
-0.06618643266599143 
-0.116287152296161 
-0.172925784637475 
-0.1044638028749365 
0.3275498508163297 
0.05709817383673174 
1.24365493439026 
-0.3372651060365496 
-0.08944823098873576 
-0.2175035913775949 
-0.2316875305124032 
-0.3005202519980207 
-0.08159063988046536 
-0.5321022420884783 
-0.3917393791250208 
0.03862491712408321 
-0.04583396731388657 
-0.04870144861044993 
0.4053118251473449 
-0.02286962909399017 
-0.2738292978738902 
0.06945886322493464 
0.5144495898569318 
-0.05855333800046279 
-0.09117181396762739 
0.1368921097760417 
-0.2839722227929631 
-1.358929443738473 
-0.1095458937332478 
-0.8688520435879656 
-0.6419195000257969 
0.4260852130489858 
-0.3193232829847078 
-0.02431465510695219 
0.03876312659422205 
-0.1241309533790177 
-0.3715598963660875 
-0.2075456037721476 
0.1494684512004343 
-0.8296177821830559 
-0.03408816673526785 
-0.09226723645370392 
-0.1320937104733824 
-0.1373341544364085 
-0.03492029937701635 
-0.1589674534283098 
-0.08858201176083504 
-0.1516658297697874 
-0.01173783526657771 
-0.07873112718543268 
-0.04817560188742191 
-0.04105577177103469 
-0.1022837842169925 
-0.04796697724213508 
0.008417991127979597 
0.0762463859256769 
-0.04528411987151709 
0.01881869601059004 
-0.1046195660794893 
-0.2031394160821311 
-0.07364866506981596 
0.1800029059644324 
-0.07142325088351853 
0.1569769957204428 
-0.0923183512638365 
-0.02101864429685656 
0.2468825125584127 
-0.1183666095015597 
-0.5426935707480171 
-0.00241537308556496 
0.9813629513649925 
-0.7365307123796125 
-0.4016353786916054 
-0.3213280604015546 
-0.4528045659009748 
-0.3713039730988999 
-0.06870503977355776 
-0.5472006539868667 
0.2746164030459034 
0.03749427543171018 
-0.2926219133052948 
-0.07378990877968807 
-0.1964601237712407 
-0.1316903930530703 
0.03188176484199881 
0.04001573454935148 
-0.117734791591319 
0.3219723573767468 
-0.1614569515117248 
-0.07792687410749218 
-0.1561412020336699 
0.1662306143120718 
0.4036992921596968 
-0.8111873190138811 
0.716224275528511 
0.06748746226798277 
0.04902383626829777 
0.08656923750565887 
0.003438292413608065 
-0.02290561599244616 
0.4053082716013755 
-0.04124987649692471 
1.017738179632996 
-0.183153792033831 
0.04388595538792271 
-0.1344397094725925 
0.3224567415039854 
-0.3702414387572708 
-0.1662969053319262 
0.07420420111249781 
0.6204091699368658 
1.422544545593777 
0.2896417943251304 
0.2399058819247311 
0.7324069626697104 
0.7966219738023945 
0.2284922539955149 
0.7761656950649861 
1.518334196395146 
1.926655209661852 
0.5958534822850539 
0.008042375889479274 
0.5980149138656434 
0.5929474946688846 
0.6281364165736433 
-0.05475701887963273 
1.236469087727931 
1.835115710472671 
0.4911755175029144 
0.04340368252219243 
0.7999468091198893 
0.302338274685262 
-0.1180306194578681 
0.2197085062474207 
2.779175269567558 
-2.165449735523964 
-0.2718942882951504 
-0.32632259193265 
0.1185017423255092 
-0.008369383514669081 
-0.5041176353176243 
-0.5263229906948654 
-0.5221922570286849 
-1.823712356834348 
-0.1593754998451454 
-0.187730554129245 
0.2354497918268521 
-0.6043879161803448 
-0.0749205603962859 
-0.3164670985358503 
-2.378811507072077 
1.299776789158836 
-0.1036104566028442 
0.4648815167905022 
0.6803340581600292 
0.1276467973617764 
-0.317195725067274 
1.354422328032319 
-0.2853625804359528 
0.3125354273561511 
-0.2288162432350079 
-0.1451673577719126 
0.06399303601801548 
0.01017486292235069 
-0.1495732346885255 
0.2392454031636445 
-0.5231915799739241 
-1.078277406898704 
-0.4363084603170525 
-0.06309077215550021 
-0.5484935102918238 
-0.1953707924635721 
-0.1387165626094469 
-0.2530471042678992 
-0.2321448188797342 
-0.3143081778942771 
-1.252597013534315 
-0.08939164747138148 
0.6649963451344217 
-0.2042311580944088 
-0.2169638948295779 
-0.07057423583158942 
1.796788786446076 
0.4425079214871629 
-0.1283133973482227 
-0.2180508428985369 
-0.1694961325169755 
-0.1388713895432803 
-0.2253462058422096 
0.5290057823680914 
-0.3653768930105917 
0.05732178061778381 
-0.1878479328605301 
-0.1856425908623648 
0.1321577499637165 
-0.1777202966378723 
-0.305594773336877 
0.1316523392201186 
0.5880718624065868 
-0.3429508213313306 
0.05119224949427651 
-0.5673973699532681 
-0.353335976003314 
-0.009008685795195332 
-0.06082008650418224 
0.02506521179401222 
-0.050846027203023 
0.2818811213592236 
0.01962171965642553 
-0.05070858853042479 
0.09288470937724555 
-0.03443777985415901 
-0.1428081910898945 
-0.1631156708242709 
0.5233497939467766 
-0.06347703762714718 
-0.1091549540292097 
-0.05633065850800993 
-0.0738503696114438 
0.4781706377132414 
-0.03816546776187239 
0.1021040043317694 
0.4542924530457732 
-0.1890159711644773 
-0.05157309564407747 
-0.05794634037403922 
-0.06056326740907048 
-0.08810138426219584 
-0.004918607011801485 
0.01055951569689416 
-0.06182163927260514 
-0.1043078577876244 
-0.1608539550521313 
-0.1835729852605983 
-0.3456284691959048 
-0.5308200855825884 
-0.07590861715305894 
-0.6956533685379264 
-0.4119833855827539 
1.151732211181538 
2.134987727147767 
-0.1388686562565689 
0.8058079852814384 
-0.02939979808382283 
0.5595681621255934 
-0.2923804895699605 
3.07040103470581 
0.219911599002596 
-0.009883004603930276 
-0.128726382616738 
-0.1990447414123142 
-0.4749954622591958 
-0.154302685007654 
-0.2451228839797974 
-0.7917629636002682 
0.4070334899175802 
0.1625637532341186 
-0.1006974353670645 
-0.0021131000654383 
-0.03891021059554641 
0.3631772825800465 
-0.02212065066344916 
1.702929216397489 
0.4743802023603918 
-0.2312261733154908 
0.01080653995030866 
0.2071162032566553 
-0.2502400561897064 
-0.1176777222455632 
-0.5769600869579349 
-0.2425863451470007 
-0.2154840284853731 
-0.05323372001651076 
-0.1257472338102964 
0.5417563799883981 
-0.1750366265427713 
-0.2255516383926427 
-0.09593114704729758 
0.1974813079687993 
0.8122104825431049 
0.02113861944596107 
0.4481653386814778 
-0.06964842051229669 
-0.0208748919074175 
-0.2365460873635936 
0.03412590541095573 
0.06696334727833103 
0.4599487177845829 
-0.2292169825593921 
0.006721878150721818 
0.1646920431827048 
-0.2651910193593082 
-0.4233124984868663 
-0.115962088027611 
-0.1094145561441425 
-0.7604371278379259 
-0.1556121632974532 
-0.06909672064154848 
-0.09108218786401413 
-0.1623093304082846 
-0.01465348974977695 
-0.1121826223475393 
-0.2389355801202258 
-0.3225767799476784 
0.07371585160639235 
-0.09796013639701492 
0.05227517577663751 
-0.08230876555749676 
-0.0004624650337569497 
-0.105163212737175 
0.2749624718102173 
0.1218088206199385 
-0.05794852511226245 
-0.00799632465475182 
-0.1137271259369651 
-0.2841972749520507 
-0.09502979210162794 
0.299701067081948 
-0.1870031682771215 
0.04980189628097901 
0.1461113602933659 
0.008059769785613329 
0.1356016926706612 
-0.05860782242937491 
-0.7339624751688683 
-0.08823550389979223 
0.6317044733673408 
-0.01563761292708685 
-0.2639460854253221 
-0.1387848210985677 
-0.3970610555093315 
-0.174351069992128 
-0.1577823543632721 
-0.3718159032569991 
0.1325630403058852 
-0.1655399335950419 
-0.178106151833893 
-0.02345760177712055 
-0.2503365898053269 
-0.1910824971122444 
-0.009661821374519555 
-0.05519908274983872 
-0.2493530573640021 
0.7377301720445383 
0.1164928695771128 
0.08559239966599695 
-0.2362127566471964 
0.4231178653328782 
0.2934370036201026 
-1.156243478438576 
0.4050818648425041 
0.0429484539899509 
0.1851380676481277 
0.002808157718239954 
-0.06118256116461628 
-0.297496082904179 
0.5450969767089926 
-0.004238821252840233 
0.8220936214163985 
-2.739269427823258 
-0.1779477573168977 
0.1385926699327191 
0.01963831319475674 
-0.5001036714827292 
-0.1309572020725883 
0.2144725908506466 
-1.571558628932475 
-0.4036352010322151 
2.509661952871267 
0.1129785589790023 
0.4116955939851065 
0.408593260597196 
0.6218285223596833 
0.207217435381072 
0.4749325076861838 
-0.2637485975020782 
0.3429296703103267 
-0.01599667055820873 
0.1913352709189891 
0.5653289076396418 
0.4266297466883974 
0.1638027346334789 
-1.703549188687753 
0.5432023915155847 
2.082062329406431 
-0.1067699445374419 
0.5429499860756717 
0.2263314929276617 
1.215345529473013 
0.2525924060117191 
1.252618510566521 
1.381401701605707 
-0.3477825700177008 
-1.991740178768945 
-1.162954832152173 
-1.214026607324651 
-0.3520585228023124 
-1.372953524968858 
-0.127027567610096 
0.9496516092015452 
-0.1103800520495067 
-0.1980956210107307 
0.6458727056692951 
-0.6265632775926447 
-0.1165918611452702 
-0.3812473832226069 
-2.022511255279395 
-1.436627469664271 
-0.3011268780627637 
-0.573340865796463 
-0.4413222220903879 
-1.326341031253704 
-0.6502265019898635 
0.2852298421670581 
5.613259316962123 
0.03460782747168142 
-0.1532658628225959 
-0.2571067449310694 
-0.1429877368482226 
-0.6042380036734406 
-0.6782162802657223 
-0.05433366004427717 
-1.305010834005445 
-0.7255954558293932 
-0.2112637346086482 
0.08151285347520196 
-0.4511756051585776 
-0.07810265088000108 
-0.1294819135572995 
-0.4137049941179723 
0.08586343614872818 
1.372692115710815 
-0.219693241818206 
0.08330518441917834 
-1.706652799381954 
-0.1046381054947811 
-0.01929362098615876 
0.3723032058288766 
-0.8529761318357897 
-0.3075026502515375 
-0.06386361554528931 
-0.1696802065269457 
-0.1897632124601439 
-0.3731902447720726 
-0.1119380012721737 
0.4723386889527774 
1.444263913152984 
-0.3695820148784381 
-0.3447030220809513 
-0.1629706680440048 
-0.2248735505696274 
-0.2478740278417313 
-0.2873019869313913 
0.4061142840711794 
-1.12006780928823 
-0.3295983457861889 
-0.2123112248794016 
-0.9330925833748834 
-0.3552355019019678 
-0.1417416546457483 
-0.02224840240704732 
-0.1950111322797554 
-0.1156034228164307 
0.2629789207982669 
-0.01295656706750242 
-0.07651964207073631 
-0.187937845933468 
-0.1016265483282154 
-0.03201884954592775 
-0.1001225924087899 
0.04821193842695146 
-0.03937056282936013 
-0.1032039983608695 
-0.1245620869681363 
-0.108483596788071 
0.05176970010209606 
-0.1215504501647088 
-0.1686018388170701 
0.1946631055016574 
-0.03293082030592102 
-0.09766044376804559 
0.010277085858849 
-0.0736646526984629 
-0.1511608787603745 
-0.03247425021294679 
-0.01956484550501211 
-0.1938225901064716 
-0.3416718971258511 
-0.06601860849752238 
-0.5274584109725592 
-0.4492782162592183 
-0.2672050978702276 
-0.08903359418170105 
-0.5497524945172877 
0.4254861183862886 
3.995247866347434 
1.25436943274626 
0.0135274417334397 
-2.148656563254614 
0.1454969063986212 
0.2962626183212013 
-0.0345318681108097 
0.3889426733907816 
-0.03724331234856765 
-0.1053302509106356 
-0.02855363090259991 
-0.09899118487349452 
-0.4368435909096413 
-0.05426743683112263 
-0.1914217278527594 
0.3077493692758763 
0.02852897074878915 
-0.2194969894176503 
-0.02061000575374883 
-0.01906293809854835 
0.1546841967667568 
0.1944158105137135 
0.1179620195081898 
0.231513538267454 
-0.6568642091019766 
-0.2980503370014428 
-0.1968663953387678 
-0.4550876883006516 
-0.2820176579906962 
-0.03044272712895791 
-0.4955131618732495 
-0.1516852163023988 
0.4253335192758727 
-0.06822650945986349 
-0.1505802007703032 
0.3974439060139148 
-0.0744980346479393 
-0.1497874920711131 
-0.2480182912504878 
0.2727258196219327 
0.005947304105727314 
-0.1817573793241372 
-0.1756452282696021 
-0.1973337645465196 
0.391437427673534 
-0.2404507850764797 
2.750616028951974 
5.011500843199856 
-0.06614820340581998 
-0.4861217345369095 
-0.05761431494011217 
0.09373306622214328 
-0.2847598546977255 
-0.372672710851753 
-0.3721651307498992 
-0.4656098767737665 
-0.809371559355328 
-0.09172566723058286 
-0.06879813098075656 
-0.06978929310802307 
-0.09896421019080443 
-0.06827377181311384 
-0.1171080617434917 
-0.1763163219625823 
-0.179008761301607 
-0.01460173674919653 
-0.07070918092463883 
-0.07547661335703929 
-0.1630988974236237 
-0.1413222644815499 
-0.03243616069508349 
-0.1001074951824756 
-0.4270998854678141 
-0.05913279416418787 
0.0363653365240583 
-0.04226447847131807 
0.2947938934790552 
-0.08822467879687637 
0.7456805386270066 
0.7345850546037142 
-0.2154062168446961 
-0.1593339567251938 
-0.008259445643981043 
-0.08894223506605548 
-0.2037821312895753 
-1.360207142101894 
0.2721186071656249 
-1.159583401688932 
0.507182231413005 
-0.3232599972647703 
-0.4402780311009255 
-0.4995197172301201 
-0.1699136081083952 
-0.05119515851123788 
-0.6496369090189716 
0.4132331207842765 
0.5487630883173321 
-0.2688855712323067 
-0.06175790217542915 
-0.2755540565317974 
0.007539944656889619 
0.05256225550563339 
-0.09477513115886867 
-0.3260533285195584 
1.26659746447282 
-0.1034180222143172 
-0.2744657882957086 
-0.338880734998326 
1.909014405495533 
0.525380744984053 
0.7310925369509445 
4.288661575380332 
-0.04655714943987845 
-0.006808839999655099 
0.01318564728209381 
0.1521108786206968 
-0.0681908079390407 
0.3003120381921807 
0.0913870332382333 
1.070334277353194 
0.6074268672570637 
0.2295167451747641 
-0.5179439281500433 
-0.02019035903532607 
-0.395106274734167 
0.01319724514554848 
0.03711181501111893 
1.17664371045872 
2.516502476031416 
0.7882736224617797 
0.03513629443773251 
0.7948503114445518 
0.9754584712315682 
-0.04351771690809408 
0.4472114925634158 
-1.529863603310746 
-1.742329337041843 
-0.008001640620046151 
-0.2515370984610821 
-0.03096264718920246 
0.603221669260023 
0.09544734970476483 
0.7801705292921273 
1.743866607946954 
0.1017677230121777 
-0.9583405310064603 
-0.1286630808995093 
-0.04756165920994927 
1.441803734992865 
-0.7932831448924256 
1.146407055422659 
-1.271527039646742 
0.3609934178825823 
-0.8406192321273894 
-1.683819283458836 
-1.723792035696158 
-1.246033623594265 
-0.293774588565204 
-1.786665595742311 
0.9991316470696801 
2.231286453574619 
-0.7732053282506111 
-0.4550400747486527 
-0.03011132808704203 
-0.3660821151635551 
-0.1772062258474517 
-0.3828678592917769 
3.517682096911138 
2.098029012916798 
-0.3920161624859753 
-0.1763261902034845 
-0.09387712588774672 
-1.00015094279988 
-0.3043639824196097 
-0.7337935849733941 
2.520373154389231 
0.9153674319175751 
-0.06626792959930042 
-0.309939845949534 
-0.2357738940755265 
-0.1166136546655218 
-0.5864340200231299 
0.08050321270536459 
-0.5726401038200383 
-0.8647045458627549 
-0.3577793797567233 
-0.1299796828689213 
-0.5277598577297312 
-0.2889650448721767 
-0.1565950284588821 
-0.4900379526444296 
0.4208471028830733 
0.3111270678846505 
-1.168826792245175 
-0.05960025983743512 
-0.8493496017184943 
-0.4371717199759723 
-0.2628967880157635 
0.05103324204433003 
0.2126947751162041 
0.6986532020040945 
-0.1277537662631972 
-0.1437639820626819 
-0.1864062572185357 
-0.1339248671329573 
-0.1152106789649753 
0.6845524063503879 
1.145191994714098 
-0.1277630150155957 
-0.2983046141589149 
-0.1532071178130675 
-0.2086649341768385 
-0.3781124052444945 
-0.5890261927944694 
0.2156495014753953 
-1.182149811121822 
-0.9389680908974217 
-0.2149513432575149 
-0.7115957602909905 
-0.4166498226142985 
-0.1572535624333905 
-0.001796945945008507 
-0.2423707095270294 
-0.0943875975833426 
-0.1398154822219692 
0.01284608428431186 
-0.01619690226472679 
-0.1959184335515179 
-0.08683691055063315 
-0.1340466669182917 
-0.1032258412831968 
0.3077378129155273 
-0.1419991079481488 
-0.1389165715612208 
-0.03404607457011053 
-0.1390980363420852 
0.05563006547110727 
-0.120965821414633 
-0.06844323056693759 
0.2566406617115632 
-0.04169514436699343 
-0.07845388496113068 
-0.00693299107835616 
-0.06391519659700327 
-0.08913067010045325 
-0.01736595030852365 
-0.008901237228062405 
-0.05587054708577 
-0.4940549370207741 
-0.1094116662290701 
-0.5340651358089414 
-0.3171173020761976 
-0.3843021903070004 
-0.05611323971028715 
-0.6086723498959697 
0.3821168197776156 
1.308452633162398 
-0.3150483213045454 
0.008660483319051553 
-1.556774947393502 
-0.1250283645867254 
0.4446185248570286 
-0.1669840624914677 
1.349526218486546 
0.3789554570315628 
0.03827239773822273 
-0.07904948043140997 
-0.2282273206392017 
-0.3871942359153954 
-0.0391640007524287 
-0.3443910477935411 
0.2020931622444113 
0.2464071030921632 
-0.1544600875199436 
-0.03219133105620937 
-0.1215084310318158 
-0.05727474129903866 
0.2637351026004477 
0.19715236014934 
0.8437759938622622 
-0.4151604231637562 
-0.3209730550475783 
-0.285426807371824 
-0.3771999457458435 
-0.1132740051571193 
-0.1191015935235389 
-0.4727947156286501 
-0.26050638526295 
0.2451364874969851 
-0.1378899613259867 
-0.1701005287491518 
0.4736025024026146 
-0.2098750465120026 
-0.1965880783969337 
-0.06914797256643745 
1.079452533496045 
0.1531265331070923 
-0.1928238616520023 
-0.1540354354645824 
-0.4132655926092376 
-1.249683271863579 
-0.2827925777993205 
-2.311988558026498 
-0.2670393162896321 
0.1757947338188064 
-0.4820650868843635 
-0.08842634772773007 
0.1113218620903344 
-0.3822407302640203 
-0.5179313199221215 
-0.3257288237884922 
-0.7242970600256006 
-0.912310103918628 
-0.06779029565233311 
-0.04230496204731492 
-0.1466780057543907 
-0.1243698606809247 
-0.03802172584621923 
-0.09742988708501534 
-0.02131653692345928 
-0.3051678782104666 
0.06227166237597221 
-0.1269674512656677 
0.05346833605733838 
-0.04690821909556447 
-0.1221792855698333 
-0.04624202096303017 
0.2637250050808312 
-0.1237870284153586 
-0.04714655174553934 
0.02042126109800662 
-0.08430046476177643 
-0.03370840185909214 
-0.08236204210402445 
0.2839205463354287 
0.2158511872806343 
-0.06710063538323052 
-0.1660280587051126 
-0.02872719648059013 
0.3471738590270392 
-0.2054442894807533 
-0.797896358117059 
-0.006236854833972258 
-0.6816881522885068 
-0.05569630268977682 
-0.4700935512839833 
-0.4561262077750704 
-0.416940437057634 
-0.1688745878703932 
-0.05795037585173724 
-0.7283690988820533 
0.8243461992091897 
0.3173514782706077 
-0.4049200550534186 
-0.05545246861726534 
-0.3321501236726682 
-0.145668705798345 
0.0625908251006471 
-0.02164367896811277 
0.6889188957402487 
1.476648180141432 
-0.1317496137464903 
-0.2257832833695325 
-0.3611636300751055 
-0.3649820899453137 
0.488776039568752 
-1.597495836461428 
1.608518976329769 
0.005101223752055704 
0.08680675806170685 
-0.007417365762528185 
0.21369950301384 
-0.1331073951220934 
0.2622450991356498 
-0.1437066155662808 
1.230209384227898 
3.343039003125385 
0.183453843217724 
-0.2776005711166465 
0.435430599451679 
-0.2999430216668513 
0.05450906368781026 
0.1431761249637168 
2.259979728714201 
2.348390840689098 
-0.09566976656608592 
0.02028027215983445 
0.02145779306315319 
0.704770031646893 
0.1936978336198263 
0.8462278493159688 
2.599309358734381 
1.957881636677779 
0.5497787400627296 
-0.08728838591440052 
0.4840282576171391 
0.2639610613655486 
0.1894477016079323 
-0.2991940824117256 
3.461330439918809 
0.8741792972798391 
-0.1662471623227533 
0.04566412107386388 
0.1161225473252178 
-0.3726465661525658 
-0.5357797443322832 
0.1216646219416838 
0.410111045478915 
0.9497569576852661 
-1.297496917211341 
-1.867808604366321 
-0.6963898141765452 
-0.247324505371735 
-0.4044833496258262 
-0.9954036221098451 
-0.3824496086378229 
-1.156009521116234 
-1.050879172615393 
-0.5198459606626642 
0.3268038524744669 
-0.5657525240958519 
-0.2504375787081961 
-0.4201446317724603 
5.014323361797125 
1.26926118956942 
-0.6523562676811907 
0.1079540631902078 
-0.06839449747904741 
-0.1436830976845279 
-0.4189974500817318 
0.930053997894202 
-2.111101521744974 
0.02338002453528244 
-0.4430166947833501 
-0.1732924489454398 
-0.2733688996124326 
-0.2256555057610326 
-0.5988020812268393 
0.03949665968261001 
-1.154692754336447 
-0.08760076596458849 
-0.5642792270183619 
-0.4469184943286798 
-0.4768296548696641 
-0.1941505496143839 
-0.148601729001476 
-0.3155458038928229 
0.0674038020618294 
0.1971956801556682 
-1.175922663195278 
-0.1557284507776248 
2.482400951686867 
-0.3976049377189735 
-0.3174689335598206 
-0.2181488619975877 
5.665171999853697 
0.809247447043285 
-0.1261885147538759 
-0.1662720498455407 
-0.1478036159737376 
-0.09409061589095152 
-0.2387043368633929 
0.6382087637665324 
-0.2073141393713184 
-0.08560616159617282 
-0.1542474362796495 
-0.1956126807786931 
0.08828564224422383 
-0.3291597571053132 
-0.6279371003919332 
0.140258074697054 
-0.9322097909671727 
-0.7454078515361016 
-0.0164522860925478 
-1.163260289318534 
-0.3375771346199203 
-0.1972850808871089 
-0.08304613921891614 
-0.1602727793309433 
-0.2575638926673775 
-0.126528126917279 
-0.05899229442685113 
-0.04816472591570646 
0.05876683570703607 
-0.09965495705295215 
-0.1804657862813295 
-0.09776775314617049 
0.5310971089362513 
0.01690896554982221 
-0.1092352369533204 
-0.0446557005147359 
-0.1011973365581532 
0.3758278388775624 
-0.1269429395001288 
0.1203311078218509 
0.1112419397187291 
-0.1278232365814308 
-0.08558877776790645 
-0.02632802069197206 
-0.08640094201739039 
-0.09147195816851067 
-0.09133599686462385 
0.04023911239685246 
-0.07726731829246707 
0.2776456591179383 
-0.09781773810711328 
-0.4063357244193138 
-0.1513319987549071 
-0.387402870212701 
-0.05776778703261146 
-0.4251628950072934 
-0.1403690548052615 
1.609073844859545 
1.857126738110377 
-0.1449588565931186 
0.5769210672338854 
-0.2038956136169691 
0.2542516462299732 
-0.2645686444307646 
5.015574408244898 
0.6564932084672607 
0.0710618459808964 
-0.07110515512700258 
-0.2579023716123944 
-0.511330986347492 
-0.1061381579485659 
-0.2883469482087507 
-0.6638202846801695 
0.3605760619549237 
0.08292644452565198 
-0.05958489657131966 
0.04075474045212911 
0.02638005522238461 
0.2310173944914114 
-0.02702903688981662 
1.104776505033485 
0.2614965134374465 
-0.3654735591511121 
-0.1285745014704451 
-0.05417322134774288 
0.07097480590072201 
-0.1795408085681071 
-0.4726695127927439 
-0.1724080222346188 
-0.1470909931425756 
-0.0708390540381502 
-0.2108457174903915 
0.6305767537012051 
-0.2216181242417798 
-0.2213795442985547 
-0.1360419520510393 
0.9814164017794148 
1.474521189613139 
-0.1006418035540503 
-0.1398553811795344 
-0.3549478631805949 
-0.1924650045474059 
-0.4831464778372497 
-2.388023022463819 
-0.8052963111898125 
0.2157645339729234 
-0.2726625621697575 
-0.0200310952637806 
0.399346648171088 
-0.3372144702066977 
-0.6219372825942412 
-0.3035830051838286 
-0.9218452121988946 
-0.6477025117891216 
-0.1163652795672133 
0.008313889939235625 
-0.129980737319134 
-0.1907565311725876 
0.006125474727507847 
0.002076420380232862 
-0.1848726668995273 
-0.2264901557800277 
0.1471376644859938 
-0.1126398654405664 
0.315036877623658 
-0.001704841221461367 
0.002246925224381603 
-0.1238712927829614 
0.9657404855455756 
-0.1106579243385497 
-0.08783318550766125 
-0.06614759400120039 
-0.09427678087501895 
-0.1977171051359288 
-0.1577854317419006 
0.1529563313955369 
-0.03376458757762415 
-0.3494262391527284 
-0.05249352556073525 
0.01981929948656355 
0.5524096733658716 
-0.1553028912545499 
-1.032628948177394 
-0.1456125096556307 
-1.458358791949998 
0.5611995820550845 
-0.4256751440262311 
-0.3992190381665611 
-0.333707375581796 
-0.03395490462150875 
-0.1662786413204069 
-0.511618416990302 
0.7013662987951519 
-0.06174118208430765 
-0.3889138611570195 
-0.0138783164551219 
-0.1853290075538284 
-0.1965773938577614 
0.006275850760589022 
-0.074430999803848 
1.004768995131297 
3.446944875871341 
0.05120807012088772 
-0.1708692909168364 
-0.3995179578311712 
0.7570781389251903 
0.4013746931454456 
-1.847097633046156 
0.7987000419844504 
-0.009320454299647609 
0.1874769642264731 
-0.01838372580034521 
0.1993396549607087 
-0.4101555796195651 
0.5409567012347109 
-0.2027155185339208 
1.040238066056427 
0.2097022338554271 
-0.02991078381424323 
-0.06614406556418807 
0.1212557497539123 
-0.08069881750770153 
-0.00133176931719196 
0.2025545338825939 
0.02428847562253399 
-2.756996084550089 
1.205530124271411 
-0.176173201425673 
-0.04268587837855106 
0.05011590335925339 
0.4000347658853602 
-0.2138289409101626 
1.613719923864438 
2.683181514298974 
0.703742502897829 
-0.06796948356788135 
0.1331572227488618 
1.514371461763228 
0.1144867797830909 
0.1381667982991454 
-1.620663559325302 
-0.3158983040661029 
1.670608481410176 
-0.07239067062070388 
0.5751975049855348 
-0.6669138959723358 
-0.1040485388093377 
-0.176899639667459 
-1.857045088848109 
-2.393917610596696 
